digraph Tree {
node [shape=box, style="filled, rounded", color="black", fontname="helvetica"] ;
edge [fontname="helvetica"] ;
0 [label="practice_hours <= 8.5\ngini = 0.95\nsamples = 22\nvalue = [1, 1, 1, 1, 1, 1, 1, 1, 1, 1, 1, 1, 1, 1\n2, 1, 1, 1, 1, 1, 1]", fillcolor="#f9f6fe"] ;
1 [label="practice_hours <= 0.5\ngini = 0.929\nsamples = 14\nvalue = [1, 1, 1, 1, 1, 1, 1, 1, 0, 0, 1, 0, 1, 1\n0, 1, 0, 0, 1, 0, 1]", fillcolor="#ffffff"] ;
0 -> 1 [labeldistance=2.5, labelangle=45, headlabel="True"] ;
2 [label="gini = 0.0\nsamples = 1\nvalue = [0, 1, 0, 0, 0, 0, 0, 0, 0, 0, 0, 0, 0, 0\n0, 0, 0, 0, 0, 0, 0]", fillcolor="#e5b139"] ;
1 -> 2 ;
3 [label="study_hours <= 4.0\ngini = 0.923\nsamples = 13\nvalue = [1, 0, 1, 1, 1, 1, 1, 1, 0, 0, 1, 0, 1, 1\n0, 1, 0, 0, 1, 0, 1]", fillcolor="#ffffff"] ;
1 -> 3 ;
4 [label="gini = 0.0\nsamples = 1\nvalue = [1, 0, 0, 0, 0, 0, 0, 0, 0, 0, 0, 0, 0, 0\n0, 0, 0, 0, 0, 0, 0]", fillcolor="#e58139"] ;
3 -> 4 ;
5 [label="study_hours <= 6.0\ngini = 0.917\nsamples = 12\nvalue = [0, 0, 1, 1, 1, 1, 1, 1, 0, 0, 1, 0, 1, 1\n0, 1, 0, 0, 1, 0, 1]", fillcolor="#ffffff"] ;
3 -> 5 ;
6 [label="gini = 0.5\nsamples = 2\nvalue = [0, 0, 1, 0, 0, 0, 0, 0, 0, 0, 0, 0, 1, 0\n0, 0, 0, 0, 0, 0, 0]", fillcolor="#ffffff"] ;
5 -> 6 ;
7 [label="sleep_hours <= 3.5\ngini = 0.9\nsamples = 10\nvalue = [0, 0, 0, 1, 1, 1, 1, 1, 0, 0, 1, 0, 0, 1\n0, 1, 0, 0, 1, 0, 1]", fillcolor="#ffffff"] ;
5 -> 7 ;
8 [label="study_hours <= 18.5\ngini = 0.5\nsamples = 2\nvalue = [0, 0, 0, 0, 0, 0, 1, 1, 0, 0, 0, 0, 0, 0\n0, 0, 0, 0, 0, 0, 0]", fillcolor="#ffffff"] ;
7 -> 8 ;
9 [label="gini = 0.0\nsamples = 1\nvalue = [0, 0, 0, 0, 0, 0, 0, 1, 0, 0, 0, 0, 0, 0\n0, 0, 0, 0, 0, 0, 0]", fillcolor="#39e57e"] ;
8 -> 9 ;
10 [label="gini = 0.0\nsamples = 1\nvalue = [0, 0, 0, 0, 0, 0, 1, 0, 0, 0, 0, 0, 0, 0\n0, 0, 0, 0, 0, 0, 0]", fillcolor="#39e54d"] ;
8 -> 10 ;
11 [label="practice_hours <= 2.5\ngini = 0.875\nsamples = 8\nvalue = [0, 0, 0, 1, 1, 1, 0, 0, 0, 0, 1, 0, 0, 1\n0, 1, 0, 0, 1, 0, 1]", fillcolor="#ffffff"] ;
7 -> 11 ;
12 [label="sleep_hours <= 11.5\ngini = 0.5\nsamples = 2\nvalue = [0, 0, 0, 1, 0, 1, 0, 0, 0, 0, 0, 0, 0, 0\n0, 0, 0, 0, 0, 0, 0]", fillcolor="#ffffff"] ;
11 -> 12 ;
13 [label="gini = 0.0\nsamples = 1\nvalue = [0, 0, 0, 0, 0, 1, 0, 0, 0, 0, 0, 0, 0, 0\n0, 0, 0, 0, 0, 0, 0]", fillcolor="#56e539"] ;
12 -> 13 ;
14 [label="gini = 0.0\nsamples = 1\nvalue = [0, 0, 0, 1, 0, 0, 0, 0, 0, 0, 0, 0, 0, 0\n0, 0, 0, 0, 0, 0, 0]", fillcolor="#b7e539"] ;
12 -> 14 ;
15 [label="sleep_hours <= 5.5\ngini = 0.833\nsamples = 6\nvalue = [0, 0, 0, 0, 1, 0, 0, 0, 0, 0, 1, 0, 0, 1\n0, 1, 0, 0, 1, 0, 1]", fillcolor="#ffffff"] ;
11 -> 15 ;
16 [label="study_hours <= 15.5\ngini = 0.5\nsamples = 2\nvalue = [0, 0, 0, 0, 1, 0, 0, 0, 0, 0, 1, 0, 0, 0\n0, 0, 0, 0, 0, 0, 0]", fillcolor="#ffffff"] ;
15 -> 16 ;
17 [label="gini = 0.0\nsamples = 1\nvalue = [0, 0, 0, 0, 1, 0, 0, 0, 0, 0, 0, 0, 0, 0\n0, 0, 0, 0, 0, 0, 0]", fillcolor="#86e539"] ;
16 -> 17 ;
18 [label="gini = 0.0\nsamples = 1\nvalue = [0, 0, 0, 0, 0, 0, 0, 0, 0, 0, 1, 0, 0, 0\n0, 0, 0, 0, 0, 0, 0]", fillcolor="#39b7e5"] ;
16 -> 18 ;
19 [label="study_hours <= 7.5\ngini = 0.75\nsamples = 4\nvalue = [0, 0, 0, 0, 0, 0, 0, 0, 0, 0, 0, 0, 0, 1\n0, 1, 0, 0, 1, 0, 1]", fillcolor="#ffffff"] ;
15 -> 19 ;
20 [label="gini = 0.0\nsamples = 1\nvalue = [0, 0, 0, 0, 0, 0, 0, 0, 0, 0, 0, 0, 0, 0\n0, 0, 0, 0, 1, 0, 0]", fillcolor="#e53986"] ;
19 -> 20 ;
21 [label="practice_hours <= 6.5\ngini = 0.667\nsamples = 3\nvalue = [0, 0, 0, 0, 0, 0, 0, 0, 0, 0, 0, 0, 0, 1\n0, 1, 0, 0, 0, 0, 1]", fillcolor="#ffffff"] ;
19 -> 21 ;
22 [label="gini = 0.0\nsamples = 1\nvalue = [0, 0, 0, 0, 0, 0, 0, 0, 0, 0, 0, 0, 0, 1\n0, 0, 0, 0, 0, 0, 0]", fillcolor="#4d39e5"] ;
21 -> 22 ;
23 [label="sleep_hours <= 7.5\ngini = 0.5\nsamples = 2\nvalue = [0, 0, 0, 0, 0, 0, 0, 0, 0, 0, 0, 0, 0, 0\n0, 1, 0, 0, 0, 0, 1]", fillcolor="#ffffff"] ;
21 -> 23 ;
24 [label="gini = 0.0\nsamples = 1\nvalue = [0, 0, 0, 0, 0, 0, 0, 0, 0, 0, 0, 0, 0, 0\n0, 1, 0, 0, 0, 0, 0]", fillcolor="#b139e5"] ;
23 -> 24 ;
25 [label="gini = 0.0\nsamples = 1\nvalue = [0, 0, 0, 0, 0, 0, 0, 0, 0, 0, 0, 0, 0, 0\n0, 0, 0, 0, 0, 0, 1]", fillcolor="#e54d39"] ;
23 -> 25 ;
26 [label="sleep_hours <= 6.5\ngini = 0.844\nsamples = 8\nvalue = [0, 0, 0, 0, 0, 0, 0, 0, 1, 1, 0, 1, 0, 0\n2, 0, 1, 1, 0, 1, 0]", fillcolor="#ede3fb"] ;
0 -> 26 [labeldistance=2.5, labelangle=-45, headlabel="False"] ;
27 [label="practice_hours <= 11.0\ngini = 0.75\nsamples = 4\nvalue = [0, 0, 0, 0, 0, 0, 0, 0, 1, 0, 0, 1, 0, 0\n0, 0, 0, 1, 0, 1, 0]", fillcolor="#ffffff"] ;
26 -> 27 ;
28 [label="gini = 0.0\nsamples = 1\nvalue = [0, 0, 0, 0, 0, 0, 0, 0, 0, 0, 0, 0, 0, 0\n0, 0, 0, 1, 0, 0, 0]", fillcolor="#e539b7"] ;
27 -> 28 ;
29 [label="practice_hours <= 13.0\ngini = 0.667\nsamples = 3\nvalue = [0, 0, 0, 0, 0, 0, 0, 0, 1, 0, 0, 1, 0, 0\n0, 0, 0, 0, 0, 1, 0]", fillcolor="#ffffff"] ;
27 -> 29 ;
30 [label="gini = 0.0\nsamples = 1\nvalue = [0, 0, 0, 0, 0, 0, 0, 0, 0, 0, 0, 1, 0, 0\n0, 0, 0, 0, 0, 0, 0]", fillcolor="#3986e5"] ;
29 -> 30 ;
31 [label="study_hours <= 5.5\ngini = 0.5\nsamples = 2\nvalue = [0, 0, 0, 0, 0, 0, 0, 0, 1, 0, 0, 0, 0, 0\n0, 0, 0, 0, 0, 1, 0]", fillcolor="#ffffff"] ;
29 -> 31 ;
32 [label="gini = 0.0\nsamples = 1\nvalue = [0, 0, 0, 0, 0, 0, 0, 0, 1, 0, 0, 0, 0, 0\n0, 0, 0, 0, 0, 0, 0]", fillcolor="#39e5b1"] ;
31 -> 32 ;
33 [label="gini = 0.0\nsamples = 1\nvalue = [0, 0, 0, 0, 0, 0, 0, 0, 0, 0, 0, 0, 0, 0\n0, 0, 0, 0, 0, 1, 0]", fillcolor="#e53956"] ;
31 -> 33 ;
34 [label="study_hours <= 4.0\ngini = 0.625\nsamples = 4\nvalue = [0, 0, 0, 0, 0, 0, 0, 0, 0, 1, 0, 0, 0, 0\n2, 0, 1, 0, 0, 0, 0]", fillcolor="#d4bdf6"] ;
26 -> 34 ;
35 [label="study_hours <= 2.5\ngini = 0.5\nsamples = 2\nvalue = [0, 0, 0, 0, 0, 0, 0, 0, 0, 1, 0, 0, 0, 0\n0, 0, 1, 0, 0, 0, 0]", fillcolor="#ffffff"] ;
34 -> 35 ;
36 [label="gini = 0.0\nsamples = 1\nvalue = [0, 0, 0, 0, 0, 0, 0, 0, 0, 0, 0, 0, 0, 0\n0, 0, 1, 0, 0, 0, 0]", fillcolor="#e239e5"] ;
35 -> 36 ;
37 [label="gini = 0.0\nsamples = 1\nvalue = [0, 0, 0, 0, 0, 0, 0, 0, 0, 1, 0, 0, 0, 0\n0, 0, 0, 0, 0, 0, 0]", fillcolor="#39e5e2"] ;
35 -> 37 ;
38 [label="gini = 0.0\nsamples = 2\nvalue = [0, 0, 0, 0, 0, 0, 0, 0, 0, 0, 0, 0, 0, 0\n2, 0, 0, 0, 0, 0, 0]", fillcolor="#7e39e5"] ;
34 -> 38 ;
}